<?xml version="1.0" encoding="UTF-8"?>
<BIF VERSION="0.3"  xmlns="http://www.cs.ubc.ca/labs/lci/fopi/ve/XMLBIFv0_3"
	xmlns:xsi="http://www.w3.org/2001/XMLSchema-instance"
	xsi:schemaLocation="http://www.cs.ubc.ca/labs/lci/fopi/ve/XMLBIFv0_3 http://www.cs.ubc.ca/labs/lci/fopi/ve/XMLBIFv0_3/XMLBIFv0_3.xsd">
<NETWORK>
<NAME>Nuclear Power Station</NAME>
<PROPERTY>short = </PROPERTY>
<PROPERTY>detailed = </PROPERTY>

<VARIABLE TYPE="nature">
	<NAME>WaterLeak</NAME>
	<OUTCOME>T</OUTCOME>
	<OUTCOME>F</OUTCOME>
	<PROPERTY>position = (7519.96728515625, 5252.11962890625)</PROPERTY>
</VARIABLE>

<VARIABLE TYPE="nature">
	<NAME>WaterLeakWarning</NAME>
	<OUTCOME>T</OUTCOME>
	<OUTCOME>F</OUTCOME>
	<PROPERTY>position = (7458.16064453125, 5093.61865234375)</PROPERTY>
</VARIABLE>

<VARIABLE TYPE="nature">
	<NAME>IcyWeather</NAME>
	<OUTCOME>T</OUTCOME>
	<OUTCOME>F</OUTCOME>
	<PROPERTY>position = (7645.84228515625, 5046.47998046875)</PROPERTY>
</VARIABLE>

<VARIABLE TYPE="nature">
	<NAME>PumpFailure</NAME>
	<OUTCOME>T</OUTCOME>
	<OUTCOME>F</OUTCOME>
	<PROPERTY>position = (7414.15380859375, 5254.46630859375)</PROPERTY>
</VARIABLE>

<VARIABLE TYPE="nature">
	<NAME>PumpFailureWarning</NAME>
	<OUTCOME>T</OUTCOME>
	<OUTCOME>F</OUTCOME>
	<PROPERTY>position = (7294.2353515625, 5093.30322265625)</PROPERTY>
</VARIABLE>

<VARIABLE TYPE="nature">
	<NAME>Meltdown</NAME>
	<OUTCOME>T</OUTCOME>
	<OUTCOME>F</OUTCOME>
	<PROPERTY>position = (7400.341796875, 5346.5908203125)</PROPERTY>
</VARIABLE>

<VARIABLE TYPE="nature">
	<NAME>BatteryWorks</NAME>
	<OUTCOME>T</OUTCOME>
	<OUTCOME>F</OUTCOME>
	<PROPERTY>position = (7784.81787109375, 5117.1513671875)</PROPERTY>
</VARIABLE>

<VARIABLE TYPE="nature">
	<NAME>RadioWorks</NAME>
	<OUTCOME>T</OUTCOME>
	<OUTCOME>F</OUTCOME>
	<PROPERTY>position = (7838.203125, 5194.28173828125)</PROPERTY>
</VARIABLE>

<VARIABLE TYPE="nature">
	<NAME>IgnitionWorks</NAME>
	<OUTCOME>T</OUTCOME>
	<OUTCOME>F</OUTCOME>
	<PROPERTY>position = (7719.20654296875, 5193.61962890625)</PROPERTY>
</VARIABLE>

<VARIABLE TYPE="nature">
	<NAME>Gas</NAME>
	<OUTCOME>T</OUTCOME>
	<OUTCOME>F</OUTCOME>
	<PROPERTY>position = (7618.123046875, 5192.95654296875)</PROPERTY>
</VARIABLE>

<VARIABLE TYPE="nature">
	<NAME>CarStarts</NAME>
	<OUTCOME>T</OUTCOME>
	<OUTCOME>F</OUTCOME>
	<PROPERTY>position = (7674.35595703125, 5268.4599609375)</PROPERTY>
</VARIABLE>

<VARIABLE TYPE="nature">
	<NAME>CarMoves</NAME>
	<OUTCOME>T</OUTCOME>
	<OUTCOME>F</OUTCOME>
	<PROPERTY>position = (7628.53466796875, 5332.77880859375)</PROPERTY>
</VARIABLE>

<VARIABLE TYPE="nature">
	<NAME>OwnerSurvives</NAME>
	<OUTCOME>T</OUTCOME>
	<OUTCOME>F</OUTCOME>
	<PROPERTY>position = (7500.89306640625, 5419.51953125)</PROPERTY>
</VARIABLE>

<VARIABLE TYPE="nature">
	<NAME>BycicleWorks</NAME>
	<OUTCOME>T</OUTCOME>
	<OUTCOME>F</OUTCOME>
	<PROPERTY>position = (7731.45166015625, 5331.82861328125)</PROPERTY>
</VARIABLE>

<VARIABLE TYPE="nature">
	<NAME>IsAsleep(H.S)</NAME>
	<OUTCOME>T</OUTCOME>
	<OUTCOME>F</OUTCOME>
	<PROPERTY>position = (7169.16650390625, 5094.646484375)</PROPERTY>
</VARIABLE>

<VARIABLE TYPE="nature">
	<NAME>IdentifiesTheAlarm(H.S.)</NAME>
	<OUTCOME>T</OUTCOME>
	<OUTCOME>F</OUTCOME>
	<PROPERTY>position = (7310.88818359375, 5165.92138671875)</PROPERTY>
</VARIABLE>

<VARIABLE TYPE="nature">
	<NAME>KnowsHowToReact(H.S.)</NAME>
	<OUTCOME>T</OUTCOME>
	<OUTCOME>F</OUTCOME>
	<PROPERTY>position = (7242.70458984375, 5257.86376953125)</PROPERTY>
</VARIABLE>

<VARIABLE TYPE="nature">
	<NAME>FeelsConfident(H.S.)</NAME>
	<OUTCOME>T</OUTCOME>
	<OUTCOME>F</OUTCOME>
	<PROPERTY>position = (7165.796875, 5167.24560546875)</PROPERTY>
</VARIABLE>

<DEFINITION>
	<FOR>WaterLeak</FOR>
	<GIVEN>IcyWeather</GIVEN>
	<TABLE>0.2 0.8 0.1 0.9</TABLE>
</DEFINITION>

<DEFINITION>
	<FOR>WaterLeakWarning</FOR>
	<GIVEN>WaterLeak</GIVEN>
	<TABLE>0.9 0.1 0.05 0.95</TABLE>
</DEFINITION>

<DEFINITION>
	<FOR>IcyWeather</FOR>
	<TABLE>0.05 0.95</TABLE>
</DEFINITION>

<DEFINITION>
	<FOR>PumpFailure</FOR>
	<TABLE>0.1 0.9</TABLE>
</DEFINITION>

<DEFINITION>
	<FOR>PumpFailureWarning</FOR>
	<GIVEN>PumpFailure</GIVEN>
	<TABLE>0.9 0.1 0.05 0.95</TABLE>
</DEFINITION>

<DEFINITION>
	<FOR>Meltdown</FOR>
	<GIVEN>WaterLeak</GIVEN>
	<GIVEN>PumpFailure</GIVEN>
	<GIVEN>KnowsHowToReact(H.S.)</GIVEN>
	<TABLE>0.4 0.6 0.9 0.1 0.2 0.8 0.9 0.1 0.15 0.85 0.8 0.2 0.001 0.999 0.001 0.999</TABLE>
</DEFINITION>

<DEFINITION>
	<FOR>BatteryWorks</FOR>
	<GIVEN>IcyWeather</GIVEN>
	<TABLE>0.8 0.2 0.95 0.05</TABLE>
</DEFINITION>

<DEFINITION>
	<FOR>RadioWorks</FOR>
	<GIVEN>BatteryWorks</GIVEN>
	<TABLE>0.95 0.05 0.0 1.0</TABLE>
</DEFINITION>

<DEFINITION>
	<FOR>IgnitionWorks</FOR>
	<GIVEN>BatteryWorks</GIVEN>
	<TABLE>0.95 0.05 0.0 1.0</TABLE>
</DEFINITION>

<DEFINITION>
	<FOR>Gas</FOR>
	<TABLE>0.95 0.05</TABLE>
</DEFINITION>

<DEFINITION>
	<FOR>CarStarts</FOR>
	<GIVEN>IgnitionWorks</GIVEN>
	<GIVEN>Gas</GIVEN>
	<TABLE>0.95 0.05 0.0 1.0 0.0 1.0 0.0 1.0</TABLE>
</DEFINITION>

<DEFINITION>
	<FOR>CarMoves</FOR>
	<GIVEN>CarStarts</GIVEN>
	<TABLE>0.95 0.05 0.0 1.0</TABLE>
</DEFINITION>

<DEFINITION>
	<FOR>OwnerSurvives</FOR>
	<GIVEN>Meltdown</GIVEN>
	<GIVEN>CarMoves</GIVEN>
	<GIVEN>BycicleWorks</GIVEN>
	<TABLE>0.9 0.1 0.8 0.2 0.6 0.4 0.3 0.7 1.0 0.0 1.0 0.0 1.0 0.0 1.0 0.0</TABLE>
</DEFINITION>

<DEFINITION>
	<FOR>BycicleWorks</FOR>
	<TABLE>0.9 0.1</TABLE>
</DEFINITION>

<DEFINITION>
	<FOR>IsAsleep(H.S)</FOR>
	<TABLE>0.4 0.6</TABLE>
</DEFINITION>

<DEFINITION>
	<FOR>IdentifiesTheAlarm(H.S.)</FOR>
	<GIVEN>WaterLeakWarning</GIVEN>
	<GIVEN>PumpFailureWarning</GIVEN>
	<GIVEN>IsAsleep(H.S)</GIVEN>
	<TABLE>0.4 0.6 0.8 0.2 0.3 0.7 0.6 0.4 0.25 0.75 0.5 0.5 0.0 1.0 0.0 1.0</TABLE>
</DEFINITION>

<DEFINITION>
	<FOR>KnowsHowToReact(H.S.)</FOR>
	<GIVEN>IdentifiesTheAlarm(H.S.)</GIVEN>
	<GIVEN>FeelsConfident(H.S.)</GIVEN>
	<TABLE>0.75 0.25 0.5 0.5 0.25 0.75 0.0 1.0</TABLE>
</DEFINITION>

<DEFINITION>
	<FOR>FeelsConfident(H.S.)</FOR>
	<TABLE>0.2 0.8</TABLE>
</DEFINITION>
</NETWORK>
</BIF>
