<?xml version="1.0" encoding="UTF-8"?>
<BIF VERSION="0.3"  xmlns="http://www.cs.ubc.ca/labs/lci/fopi/ve/XMLBIFv0_3"
	xmlns:xsi="http://www.w3.org/2001/XMLSchema-instance"
	xsi:schemaLocation="http://www.cs.ubc.ca/labs/lci/fopi/ve/XMLBIFv0_3 http://www.cs.ubc.ca/labs/lci/fopi/ve/XMLBIFv0_3/XMLBIFv0_3.xsd">
<NETWORK>
<NAME>Nuclear Power Station</NAME>
<PROPERTY>short = </PROPERTY>
<PROPERTY>detailed = </PROPERTY>

<VARIABLE TYPE="nature">
	<NAME>WaterLeak</NAME>
	<OUTCOME>T</OUTCOME>
	<OUTCOME>F</OUTCOME>
	<PROPERTY>position = (7658.2412109375, 5159.50927734375)</PROPERTY>
</VARIABLE>

<VARIABLE TYPE="nature">
	<NAME>WaterLeakWarning</NAME>
	<OUTCOME>T</OUTCOME>
	<OUTCOME>F</OUTCOME>
	<PROPERTY>position = (7483.3701171875, 5053.05029296875)</PROPERTY>
</VARIABLE>

<VARIABLE TYPE="nature">
	<NAME>IcyWeather</NAME>
	<OUTCOME>T</OUTCOME>
	<OUTCOME>F</OUTCOME>
	<PROPERTY>position = (7831.705078125, 4978.849609375)</PROPERTY>
</VARIABLE>

<VARIABLE TYPE="nature">
	<NAME>PumpFailure</NAME>
	<OUTCOME>T</OUTCOME>
	<OUTCOME>F</OUTCOME>
	<PROPERTY>position = (7527.150390625, 5157.01220703125)</PROPERTY>
</VARIABLE>

<VARIABLE TYPE="nature">
	<NAME>PumpFailureWarning</NAME>
	<OUTCOME>T</OUTCOME>
	<OUTCOME>F</OUTCOME>
	<PROPERTY>position = (7300.76953125, 5049.55419921875)</PROPERTY>
</VARIABLE>

<VARIABLE TYPE="nature">
	<NAME>Meltdown</NAME>
	<OUTCOME>T</OUTCOME>
	<OUTCOME>F</OUTCOME>
	<PROPERTY>position = (7608.97509765625, 5294.6123046875)</PROPERTY>
</VARIABLE>

<VARIABLE TYPE="nature">
	<NAME>BatteryWorks</NAME>
	<OUTCOME>T</OUTCOME>
	<OUTCOME>F</OUTCOME>
	<PROPERTY>position = (8041.56201171875, 5085.56494140625)</PROPERTY>
</VARIABLE>

<VARIABLE TYPE="nature">
	<NAME>RadioWorks</NAME>
	<OUTCOME>T</OUTCOME>
	<OUTCOME>F</OUTCOME>
	<OBS>F</OBS>
	<PROPERTY>position = (8122.17529296875, 5202.03515625)</PROPERTY>
</VARIABLE>

<VARIABLE TYPE="nature">
	<NAME>IgnitionWorks</NAME>
	<OUTCOME>T</OUTCOME>
	<OUTCOME>F</OUTCOME>
	<PROPERTY>position = (7942.4873046875, 5201.03515625)</PROPERTY>
</VARIABLE>

<VARIABLE TYPE="nature">
	<NAME>Gas</NAME>
	<OUTCOME>T</OUTCOME>
	<OUTCOME>F</OUTCOME>
	<PROPERTY>position = (7789.84814453125, 5200.03369140625)</PROPERTY>
</VARIABLE>

<VARIABLE TYPE="nature">
	<NAME>CarStarts</NAME>
	<OUTCOME>T</OUTCOME>
	<OUTCOME>F</OUTCOME>
	<PROPERTY>position = (7874.76171875, 5314.044921875)</PROPERTY>
</VARIABLE>

<VARIABLE TYPE="nature">
	<NAME>CarMoves</NAME>
	<OUTCOME>T</OUTCOME>
	<OUTCOME>F</OUTCOME>
	<PROPERTY>position = (7805.5703125, 5411.1689453125)</PROPERTY>
</VARIABLE>

<VARIABLE TYPE="nature">
	<NAME>OwnerSurvives</NAME>
	<OUTCOME>T</OUTCOME>
	<OUTCOME>F</OUTCOME>
	<PROPERTY>position = (7612.82861328125, 5542.14990234375)</PROPERTY>
</VARIABLE>

<VARIABLE TYPE="nature">
	<NAME>BycicleWorks</NAME>
	<OUTCOME>T</OUTCOME>
	<OUTCOME>F</OUTCOME>
	<PROPERTY>position = (7960.97705078125, 5409.73388671875)</PROPERTY>
</VARIABLE>

<VARIABLE TYPE="nature">
	<NAME>IsAsleep(H.S)</NAME>
	<OUTCOME>T</OUTCOME>
	<OUTCOME>F</OUTCOME>
	<PROPERTY>position = (7111.91259765625, 5051.58251953125)</PROPERTY>
</VARIABLE>

<VARIABLE TYPE="nature">
	<NAME>IdentifiesTheAlarm(H.S.)</NAME>
	<OUTCOME>T</OUTCOME>
	<OUTCOME>F</OUTCOME>
	<PROPERTY>position = (7325.91552734375, 5159.2099609375)</PROPERTY>
</VARIABLE>

<VARIABLE TYPE="nature">
	<NAME>KnowsHowToReact(H.S.)</NAME>
	<OUTCOME>T</OUTCOME>
	<OUTCOME>F</OUTCOME>
	<PROPERTY>position = (7222.95654296875, 5298.04541015625)</PROPERTY>
</VARIABLE>

<VARIABLE TYPE="nature">
	<NAME>FeelsConfident(H.S.)</NAME>
	<OUTCOME>T</OUTCOME>
	<OUTCOME>F</OUTCOME>
	<PROPERTY>position = (7106.82421875, 5161.2099609375)</PROPERTY>
</VARIABLE>

<DEFINITION>
	<FOR>WaterLeak</FOR>
	<GIVEN>IcyWeather</GIVEN>
	<TABLE>0.2 0.8 0.1 0.9</TABLE>
</DEFINITION>

<DEFINITION>
	<FOR>WaterLeakWarning</FOR>
	<GIVEN>WaterLeak</GIVEN>
	<TABLE>0.9 0.1 0.05 0.95</TABLE>
</DEFINITION>

<DEFINITION>
	<FOR>IcyWeather</FOR>
	<TABLE>0.05 0.95</TABLE>
</DEFINITION>

<DEFINITION>
	<FOR>PumpFailure</FOR>
	<TABLE>0.1 0.9</TABLE>
</DEFINITION>

<DEFINITION>
	<FOR>PumpFailureWarning</FOR>
	<GIVEN>PumpFailure</GIVEN>
	<TABLE>0.9 0.1 0.05 0.95</TABLE>
</DEFINITION>

<DEFINITION>
	<FOR>Meltdown</FOR>
	<GIVEN>WaterLeak</GIVEN>
	<GIVEN>PumpFailure</GIVEN>
	<TABLE>0.2 0.8 0.1 0.9 0.15 0.85 0.001 0.999</TABLE>
</DEFINITION>

<DEFINITION>
	<FOR>BatteryWorks</FOR>
	<GIVEN>IcyWeather</GIVEN>
	<TABLE>0.8 0.2 0.95 0.05</TABLE>
</DEFINITION>

<DEFINITION>
	<FOR>RadioWorks</FOR>
	<GIVEN>BatteryWorks</GIVEN>
	<TABLE>0.95 0.05 0.0 1.0</TABLE>
</DEFINITION>

<DEFINITION>
	<FOR>IgnitionWorks</FOR>
	<GIVEN>BatteryWorks</GIVEN>
	<TABLE>0.95 0.05 0.0 1.0</TABLE>
</DEFINITION>

<DEFINITION>
	<FOR>Gas</FOR>
	<TABLE>0.95 0.05</TABLE>
</DEFINITION>

<DEFINITION>
	<FOR>CarStarts</FOR>
	<GIVEN>IgnitionWorks</GIVEN>
	<GIVEN>Gas</GIVEN>
	<TABLE>0.95 0.05 0.0 1.0 0.0 1.0 0.0 1.0</TABLE>
</DEFINITION>

<DEFINITION>
	<FOR>CarMoves</FOR>
	<GIVEN>CarStarts</GIVEN>
	<TABLE>0.95 0.05 0.0 1.0</TABLE>
</DEFINITION>

<DEFINITION>
	<FOR>OwnerSurvives</FOR>
	<GIVEN>Meltdown</GIVEN>
	<GIVEN>CarMoves</GIVEN>
	<GIVEN>BycicleWorks</GIVEN>
	<GIVEN>KnowsHowToReact(H.S.)</GIVEN>
	<TABLE>0.9 0.1 0.8 0.2 0.8 0.2 0.7 0.3 0.6 0.4 0.5 0.5 0.3 0.7 0.0 1.0 1.0 0.0 1.0 0.0 1.0 0.0 1.0 0.0 1.0 0.0 1.0 0.0 1.0 0.0 1.0 0.0</TABLE>
</DEFINITION>

<DEFINITION>
	<FOR>BycicleWorks</FOR>
	<TABLE>0.9 0.1</TABLE>
</DEFINITION>

<DEFINITION>
	<FOR>IsAsleep(H.S)</FOR>
	<TABLE>0.4 0.6</TABLE>
</DEFINITION>

<DEFINITION>
	<FOR>IdentifiesTheAlarm(H.S.)</FOR>
	<GIVEN>WaterLeakWarning</GIVEN>
	<GIVEN>PumpFailureWarning</GIVEN>
	<GIVEN>IsAsleep(H.S)</GIVEN>
	<TABLE>0.4 0.6 0.8 0.2 0.3 0.7 0.6 0.4 0.25 0.75 0.5 0.5 0.0 1.0 0.0 1.0</TABLE>
</DEFINITION>

<DEFINITION>
	<FOR>KnowsHowToReact(H.S.)</FOR>
	<GIVEN>IdentifiesTheAlarm(H.S.)</GIVEN>
	<GIVEN>FeelsConfident(H.S.)</GIVEN>
	<TABLE>0.75 0.25 0.5 0.5 0.25 0.75 0.0 1.0</TABLE>
</DEFINITION>

<DEFINITION>
	<FOR>FeelsConfident(H.S.)</FOR>
	<TABLE>0.2 0.8</TABLE>
</DEFINITION>
</NETWORK>
</BIF>
